<?xml version="1.0"?>
<opencv_storage>
<opencv_ml_boost>
  <format>3</format>
  <is_classifier>1</is_classifier>
  <var_all>60</var_all>
  <var_count>59</var_count>
  <ord_var_count>59</ord_var_count>
  <cat_var_count>1</cat_var_count>
  <training_params>
    <boosting_type>RealAdaboost</boosting_type>
    <use_surrogates>0</use_surrogates>
    <max_categories>10</max_categories>
    <regression_accuracy>0.0099999997764825821</regression_accuracy>
    <max_depth>1</max_depth>
    <min_sample_count>10</min_sample_count>
    <cross_validation_folds>0</cross_validation_folds>
    <weight_trimming_rate>0.94999999999999996</weight_trimming_rate></training_params>
  <global_var_idx>1</global_var_idx>
  <var_idx>
    0 1 2 3 4 5 6 7 8 9 10 11 12 13 14 15 16 17 18 19 20 21 22 23 24 25
    26 27 28 29 30 31 32 33 34 35 36 37 38 39 40 41 42 43 44 45 46 47 48
    49 50 51 52 53 54 55 56 57 58</var_idx>
  <var_type>
    0 0 0 0 0 0 0 0 0 0 0 0 0 0 0 0 0 0 0 0 0 0 0 0 0 0 0 0 0 0 0 0 0 0
    0 0 0 0 0 0 0 0 0 0 0 0 0 0 0 0 0 0 0 0 0 0 0 0 0 1</var_type>
  <cat_ofs>
    0 0 0 0 0 0 0 0 0 0 0 0 0 0 0 0 0 0 0 0 0 0 0 0 0 0 0 0 0 0 0 0 0 0
    0 0 0 0 0 0 0 0 0 0 0 0 0 0 0 0 0 0 0 0 0 0 0 0 0 0 0 0 0 0 0 0 0 0
    0 0 0 0 0 0 0 0 0 0 0 0 0 0 0 0 0 0 0 0 0 0 0 0 0 0 0 0 0 0 0 0 0 0
    0 0 0 0 0 0 0 0 0 0 0 0 0 0 0 0</cat_ofs>
  <class_labels>
    -1 1</class_labels>
  <missing_subst>
    0. 0. 0. 0. 0. 0. 0. 0. 0. 0. 0. 0. 0. 0. 0. 0. 0. 0. 0. 0. 0. 0. 0.
    0. 0. 0. 0. 0. 0. 0. 0. 0. 0. 0. 0. 0. 0. 0. 0. 0. 0. 0. 0. 0. 0. 0.
    0. 0. 0. 0. 0. 0. 0. 0. 0. 0. 0. 0. 0. 0.</missing_subst>
  <ntrees>100</ntrees>
  <trees>
    <_>
      <nodes>
        <_>
          <depth>0</depth>
          <value>0.36414793718181893</value>
          <splits>
            <_><var>4</var>
              <quality>0.89358842372894287</quality>
              <le>0.15093994140625</le></_></splits></_>
        <_>
          <depth>1</depth>
          <value>-1.7263147776472545</value></_>
        <_>
          <depth>1</depth>
          <value>1.8155436776876281</value></_></nodes></_>
    <_>
      <nodes>
        <_>
          <depth>0</depth>
          <value>1.9160853092294008e-08</value>
          <splits>
            <_><var>0</var>
              <quality>0.34085455536842346</quality>
              <le>0.04901123046875</le></_></splits></_>
        <_>
          <depth>1</depth>
          <value>0.85560858828560249</value></_>
        <_>
          <depth>1</depth>
          <value>-0.53757912485287007</value></_></nodes></_>
    <_>
      <nodes>
        <_>
          <depth>0</depth>
          <value>-1.4265144086344095e-09</value>
          <splits>
            <_><var>6</var>
              <quality>0.23575177788734436</quality>
              <le>0.06256103515625</le></_></splits></_>
        <_>
          <depth>1</depth>
          <value>-1.1868837843202011</value></_>
        <_>
          <depth>1</depth>
          <value>0.29221458590600119</value></_></nodes></_>
    <_>
      <nodes>
        <_>
          <depth>0</depth>
          <value>0.02269776589797861</value>
          <splits>
            <_><var>4</var>
              <quality>0.12867851555347443</quality>
              <le>0.2098388671875</le></_></splits></_>
        <_>
          <depth>1</depth>
          <value>-0.15886913825720425</value></_>
        <_>
          <depth>1</depth>
          <value>0.9728818752148195</value></_></nodes></_>
    <_>
      <nodes>
        <_>
          <depth>0</depth>
          <value>-0.064738594396339416</value>
          <splits>
            <_><var>5</var>
              <quality>0.23187263309955597</quality>
              <le>0.14385986328125</le></_></splits></_>
        <_>
          <depth>1</depth>
          <value>0.3315987984670456</value></_>
        <_>
          <depth>1</depth>
          <value>-0.83418694078011546</value></_></nodes></_>
    <_>
      <nodes>
        <_>
          <depth>0</depth>
          <value>0.12851036908307809</value>
          <splits>
            <_><var>4</var>
              <quality>0.13047762215137482</quality>
              <le>0.12176513671875</le></_></splits></_>
        <_>
          <depth>1</depth>
          <value>-5.7564577324601141</value></_>
        <_>
          <depth>1</depth>
          <value>0.23770491601608987</value></_></nodes></_>
    <_>
      <nodes>
        <_>
          <depth>0</depth>
          <value>-0.0046366316301001747</value>
          <splits>
            <_><var>4</var>
              <quality>0.17573718726634979</quality>
              <le>0.15008544921875</le></_></splits></_>
        <_>
          <depth>1</depth>
          <value>0.84778222219593313</value></_>
        <_>
          <depth>1</depth>
          <value>-0.26529880155634572</value></_></nodes></_>
    <_>
      <nodes>
        <_>
          <depth>0</depth>
          <value>0.00026769809113019928</value>
          <splits>
            <_><var>0</var>
              <quality>0.15568287670612335</quality>
              <le>0.04229736328125</le></_></splits></_>
        <_>
          <depth>1</depth>
          <value>0.6877367860864757</value></_>
        <_>
          <depth>1</depth>
          <value>-0.26988835969882397</value></_></nodes></_>
    <_>
      <nodes>
        <_>
          <depth>0</depth>
          <value>0.0060938522296840819</value>
          <splits>
            <_><var>1</var>
              <quality>0.053279232233762741</quality>
              <le>0.1015625</le></_></splits></_>
        <_>
          <depth>1</depth>
          <value>0.059287256050529924</value></_>
        <_>
          <depth>1</depth>
          <value>-5.7564577324601141</value></_></nodes></_>
    <_>
      <nodes>
        <_>
          <depth>0</depth>
          <value>-1.4420082926324641e-09</value>
          <splits>
            <_><var>5</var>
              <quality>0.101803258061409</quality>
              <le>0.1336669921875</le></_></splits></_>
        <_>
          <depth>1</depth>
          <value>0.49927134342527657</value></_>
        <_>
          <depth>1</depth>
          <value>-0.22515371188995018</value></_></nodes></_>
    <_>
      <nodes>
        <_>
          <depth>0</depth>
          <value>0.0004963397112778483</value>
          <splits>
            <_><var>4</var>
              <quality>0.099003255367279053</quality>
              <le>0.16680908203125</le></_></splits></_>
        <_>
          <depth>1</depth>
          <value>-0.4016903728207169</value></_>
        <_>
          <depth>1</depth>
          <value>0.26734810985172913</value></_></nodes></_>
    <_>
      <nodes>
        <_>
          <depth>0</depth>
          <value>4.9844014704553526e-05</value>
          <splits>
            <_><var>3</var>
              <quality>0.072616703808307648</quality>
              <le>0.09771728515625</le></_></splits></_>
        <_>
          <depth>1</depth>
          <value>0.66042859845891022</value></_>
        <_>
          <depth>1</depth>
          <value>-0.1266416376016764</value></_></nodes></_>
    <_>
      <nodes>
        <_>
          <depth>0</depth>
          <value>-0.00057667326996684119</value>
          <splits>
            <_><var>0</var>
              <quality>0.065911270678043365</quality>
              <le>0.05682373046875</le></_></splits></_>
        <_>
          <depth>1</depth>
          <value>0.21928971035560585</value></_>
        <_>
          <depth>1</depth>
          <value>-0.31689249659161162</value></_></nodes></_>
    <_>
      <nodes>
        <_>
          <depth>0</depth>
          <value>0.00011813527760158825</value>
          <splits>
            <_><var>5</var>
              <quality>0.062685713171958923</quality>
              <le>0.177978515625</le></_></splits></_>
        <_>
          <depth>1</depth>
          <value>0.13767143593582912</value></_>
        <_>
          <depth>1</depth>
          <value>-0.49780006433478557</value></_></nodes></_>
    <_>
      <nodes>
        <_>
          <depth>0</depth>
          <value>-0.038249609077866502</value>
          <splits>
            <_><var>7</var>
              <quality>0.085176631808280945</quality>
              <le>0.060791015625</le></_></splits></_>
        <_>
          <depth>1</depth>
          <value>5.7564577324623896</value></_>
        <_>
          <depth>1</depth>
          <value>-0.12306879382078505</value></_></nodes></_>
    <_>
      <nodes>
        <_>
          <depth>0</depth>
          <value>-0.013198284753186483</value>
          <splits>
            <_><var>9</var>
              <quality>0.089704819023609161</quality>
              <le>0.08892822265625</le></_></splits></_>
        <_>
          <depth>1</depth>
          <value>-0.87160760115188152</value></_>
        <_>
          <depth>1</depth>
          <value>0.12336244446848152</value></_></nodes></_>
    <_>
      <nodes>
        <_>
          <depth>0</depth>
          <value>0.015877201393075826</value>
          <splits>
            <_><var>4</var>
              <quality>0.040806945413351059</quality>
              <le>0.19146728515625</le></_></splits></_>
        <_>
          <depth>1</depth>
          <value>-0.13866190730962066</value></_>
        <_>
          <depth>1</depth>
          <value>0.30035039773445793</value></_></nodes></_>
    <_>
      <nodes>
        <_>
          <depth>0</depth>
          <value>-0.0068355874197166917</value>
          <splits>
            <_><var>5</var>
              <quality>0.057422839105129242</quality>
              <le>0.12640380859375</le></_></splits></_>
        <_>
          <depth>1</depth>
          <value>0.47624620301598319</value></_>
        <_>
          <depth>1</depth>
          <value>-0.14058085089832845</value></_></nodes></_>
    <_>
      <nodes>
        <_>
          <depth>0</depth>
          <value>0.012430482084848394</value>
          <splits>
            <_><var>8</var>
              <quality>0.052619416266679764</quality>
              <le>0.1336669921875</le></_></splits></_>
        <_>
          <depth>1</depth>
          <value>-0.09326451136871923</value></_>
        <_>
          <depth>1</depth>
          <value>0.59188837447130882</value></_></nodes></_>
    <_>
      <nodes>
        <_>
          <depth>0</depth>
          <value>-0.0044239847346392372</value>
          <splits>
            <_><var>6</var>
              <quality>0.069894082844257355</quality>
              <le>0.06646728515625</le></_></splits></_>
        <_>
          <depth>1</depth>
          <value>-0.35626601513328809</value></_>
        <_>
          <depth>1</depth>
          <value>0.21660339299540646</value></_></nodes></_>
    <_>
      <nodes>
        <_>
          <depth>0</depth>
          <value>-0.007961270408965989</value>
          <splits>
            <_><var>4</var>
              <quality>0.056889969855546951</quality>
              <le>0.16351318359375</le></_></splits></_>
        <_>
          <depth>1</depth>
          <value>-0.3189605158097642</value></_>
        <_>
          <depth>1</depth>
          <value>0.19327370740179742</value></_></nodes></_>
    <_>
      <nodes>
        <_>
          <depth>0</depth>
          <value>0.00064316540341437245</value>
          <splits>
            <_><var>3</var>
              <quality>0.036543484777212143</quality>
              <le>0.11474609375</le></_></splits></_>
        <_>
          <depth>1</depth>
          <value>0.14217601174171912</value></_>
        <_>
          <depth>1</depth>
          <value>-0.2777015688406016</value></_></nodes></_>
    <_>
      <nodes>
        <_>
          <depth>0</depth>
          <value>0.0018752546186434726</value>
          <splits>
            <_><var>4</var>
              <quality>0.041579384356737137</quality>
              <le>0.228515625</le></_></splits></_>
        <_>
          <depth>1</depth>
          <value>-0.080837478358298229</value></_>
        <_>
          <depth>1</depth>
          <value>0.59219466417789779</value></_></nodes></_>
    <_>
      <nodes>
        <_>
          <depth>0</depth>
          <value>-0.0073571373012525122</value>
          <splits>
            <_><var>7</var>
              <quality>0.045401006937026978</quality>
              <le>0.07269287109375</le></_></splits></_>
        <_>
          <depth>1</depth>
          <value>-0.5394189354372031</value></_>
        <_>
          <depth>1</depth>
          <value>0.091109261655279883</value></_></nodes></_>
    <_>
      <nodes>
        <_>
          <depth>0</depth>
          <value>0.01664922836217082</value>
          <splits>
            <_><var>3</var>
              <quality>0.038696780800819397</quality>
              <le>0.10382080078125</le></_></splits></_>
        <_>
          <depth>1</depth>
          <value>-0.24800025594365591</value></_>
        <_>
          <depth>1</depth>
          <value>0.17394945487521427</value></_></nodes></_>
    <_>
      <nodes>
        <_>
          <depth>0</depth>
          <value>-0.00030570811047721859</value>
          <splits>
            <_><var>0</var>
              <quality>0.039327863603830338</quality>
              <le>0.0831298828125</le></_></splits></_>
        <_>
          <depth>1</depth>
          <value>-0.053619813549105631</value></_>
        <_>
          <depth>1</depth>
          <value>1.0274702665725322</value></_></nodes></_>
    <_>
      <nodes>
        <_>
          <depth>0</depth>
          <value>0.00011895908368918629</value>
          <splits>
            <_><var>8</var>
              <quality>0.036813225597143173</quality>
              <le>0.16033935546875</le></_></splits></_>
        <_>
          <depth>1</depth>
          <value>-0.05940437022225456</value></_>
        <_>
          <depth>1</depth>
          <value>0.77840666022002469</value></_></nodes></_>
    <_>
      <nodes>
        <_>
          <depth>0</depth>
          <value>0.005087593233789693</value>
          <splits>
            <_><var>4</var>
              <quality>0.042722467333078384</quality>
              <le>0.18353271484375</le></_></splits></_>
        <_>
          <depth>1</depth>
          <value>-0.16382292537561718</value></_>
        <_>
          <depth>1</depth>
          <value>0.28036770116031362</value></_></nodes></_>
    <_>
      <nodes>
        <_>
          <depth>0</depth>
          <value>-0.0028378250408119185</value>
          <splits>
            <_><var>7</var>
              <quality>0.044127125293016434</quality>
              <le>0.08660888671875</le></_></splits></_>
        <_>
          <depth>1</depth>
          <value>-0.18359678260800916</value></_>
        <_>
          <depth>1</depth>
          <value>0.26069180982777596</value></_></nodes></_>
    <_>
      <nodes>
        <_>
          <depth>0</depth>
          <value>0.002719170608373411</value>
          <splits>
            <_><var>6</var>
              <quality>0.040462810546159744</quality>
              <le>0.05145263671875</le></_></splits></_>
        <_>
          <depth>1</depth>
          <value>-5.7564577324601141</value></_>
        <_>
          <depth>1</depth>
          <value>0.045144571785902768</value></_></nodes></_>
    <_>
      <nodes>
        <_>
          <depth>0</depth>
          <value>0.029170887245537895</value>
          <splits>
            <_><var>7</var>
              <quality>0.052450474351644516</quality>
              <le>0.06890869140625</le></_></splits></_>
        <_>
          <depth>1</depth>
          <value>0.7968000205683593</value></_>
        <_>
          <depth>1</depth>
          <value>-0.056672500399496353</value></_></nodes></_>
    <_>
      <nodes>
        <_>
          <depth>0</depth>
          <value>-0.0040725828749678325</value>
          <splits>
            <_><var>9</var>
              <quality>0.042808525264263153</quality>
              <le>0.10821533203125</le></_></splits></_>
        <_>
          <depth>1</depth>
          <value>-0.3807475714618897</value></_>
        <_>
          <depth>1</depth>
          <value>0.12190547035961027</value></_></nodes></_>
    <_>
      <nodes>
        <_>
          <depth>0</depth>
          <value>0.013496780393801155</value>
          <splits>
            <_><var>2</var>
              <quality>0.040858443826436996</quality>
              <le>0.02655029296875</le></_></splits></_>
        <_>
          <depth>1</depth>
          <value>1.7789171431007142</value></_>
        <_>
          <depth>1</depth>
          <value>-0.032491094648638474</value></_></nodes></_>
    <_>
      <nodes>
        <_>
          <depth>0</depth>
          <value>0.0017883350464856706</value>
          <splits>
            <_><var>4</var>
              <quality>0.031256426125764847</quality>
              <le>0.12908935546875</le></_></splits></_>
        <_>
          <depth>1</depth>
          <value>-0.70424659179808247</value></_>
        <_>
          <depth>1</depth>
          <value>0.055876217896397372</value></_></nodes></_>
    <_>
      <nodes>
        <_>
          <depth>0</depth>
          <value>-0.0031938236064350022</value>
          <splits>
            <_><var>1</var>
              <quality>0.03194001317024231</quality>
              <le>0.09954833984375</le></_></splits></_>
        <_>
          <depth>1</depth>
          <value>0.034458565459266857</value></_>
        <_>
          <depth>1</depth>
          <value>-1.4524407420873471</value></_></nodes></_>
    <_>
      <nodes>
        <_>
          <depth>0</depth>
          <value>-6.1961174824440459e-05</value>
          <splits>
            <_><var>1</var>
              <quality>0.039343208074569702</quality>
              <le>0.08624267578125</le></_></splits></_>
        <_>
          <depth>1</depth>
          <value>-0.12394755756043024</value></_>
        <_>
          <depth>1</depth>
          <value>0.34933654332403757</value></_></nodes></_>
    <_>
      <nodes>
        <_>
          <depth>0</depth>
          <value>0.016027040227378234</value>
          <splits>
            <_><var>4</var>
              <quality>0.046232312917709351</quality>
              <le>0.1722412109375</le></_></splits></_>
        <_>
          <depth>1</depth>
          <value>-0.22892650399768286</value></_>
        <_>
          <depth>1</depth>
          <value>0.21832388275947168</value></_></nodes></_>
    <_>
      <nodes>
        <_>
          <depth>0</depth>
          <value>-0.014902142192959978</value>
          <splits>
            <_><var>8</var>
              <quality>0.050214257091283798</quality>
              <le>0.10772705078125</le></_></splits></_>
        <_>
          <depth>1</depth>
          <value>-0.17138056118204548</value></_>
        <_>
          <depth>1</depth>
          <value>0.33700833098236121</value></_></nodes></_>
    <_>
      <nodes>
        <_>
          <depth>0</depth>
          <value>0.015358106507460756</value>
          <splits>
            <_><var>8</var>
              <quality>0.034786533564329147</quality>
              <le>0.09417724609375</le></_></splits></_>
        <_>
          <depth>1</depth>
          <value>0.22690596746930411</value></_>
        <_>
          <depth>1</depth>
          <value>-0.15975291021221039</value></_></nodes></_>
    <_>
      <nodes>
        <_>
          <depth>0</depth>
          <value>-0.010397639581266709</value>
          <splits>
            <_><var>5</var>
              <quality>0.033211972564458847</quality>
              <le>0.10791015625</le></_></splits></_>
        <_>
          <depth>1</depth>
          <value>1.2342429747092816</value></_>
        <_>
          <depth>1</depth>
          <value>-0.051191903800428658</value></_></nodes></_>
    <_>
      <nodes>
        <_>
          <depth>0</depth>
          <value>0.0016518972181439997</value>
          <splits>
            <_><var>6</var>
              <quality>0.028277104720473289</quality>
              <le>0.05572509765625</le></_></splits></_>
        <_>
          <depth>1</depth>
          <value>1.039848147693089</value></_>
        <_>
          <depth>1</depth>
          <value>-0.036709569828804842</value></_></nodes></_>
    <_>
      <nodes>
        <_>
          <depth>0</depth>
          <value>0.0008875016989191532</value>
          <splits>
            <_><var>6</var>
              <quality>0.037110995501279831</quality>
              <le>0.0595703125</le></_></splits></_>
        <_>
          <depth>1</depth>
          <value>-0.60338736532012416</value></_>
        <_>
          <depth>1</depth>
          <value>0.073318818341163827</value></_></nodes></_>
    <_>
      <nodes>
        <_>
          <depth>0</depth>
          <value>-0.001355786815720143</value>
          <splits>
            <_><var>4</var>
              <quality>0.031184747815132141</quality>
              <le>0.14349365234375</le></_></splits></_>
        <_>
          <depth>1</depth>
          <value>-0.39950520914538162</value></_>
        <_>
          <depth>1</depth>
          <value>0.085657731562278919</value></_></nodes></_>
    <_>
      <nodes>
        <_>
          <depth>0</depth>
          <value>-0.0035850566036317718</value>
          <splits>
            <_><var>5</var>
              <quality>0.037434529513120651</quality>
              <le>0.17041015625</le></_></splits></_>
        <_>
          <depth>1</depth>
          <value>0.089627628980292681</value></_>
        <_>
          <depth>1</depth>
          <value>-0.45652227370775111</value></_></nodes></_>
    <_>
      <nodes>
        <_>
          <depth>0</depth>
          <value>0.002908513833596946</value>
          <splits>
            <_><var>0</var>
              <quality>0.051724545657634735</quality>
              <le>0.05682373046875</le></_></splits></_>
        <_>
          <depth>1</depth>
          <value>0.23864091071394064</value></_>
        <_>
          <depth>1</depth>
          <value>-0.23676136514801574</value></_></nodes></_>
    <_>
      <nodes>
        <_>
          <depth>0</depth>
          <value>-0.0064329699725352843</value>
          <splits>
            <_><var>9</var>
              <quality>0.046765729784965515</quality>
              <le>0.14324951171875</le></_></splits></_>
        <_>
          <depth>1</depth>
          <value>-0.13333030613282154</value></_>
        <_>
          <depth>1</depth>
          <value>0.4042887223801318</value></_></nodes></_>
    <_>
      <nodes>
        <_>
          <depth>0</depth>
          <value>0.0070489331517636306</value>
          <splits>
            <_><var>0</var>
              <quality>0.02976212278008461</quality>
              <le>0.07183837890625</le></_></splits></_>
        <_>
          <depth>1</depth>
          <value>0.070633724606468315</value></_>
        <_>
          <depth>1</depth>
          <value>-0.53057440526549748</value></_></nodes></_>
    <_>
      <nodes>
        <_>
          <depth>0</depth>
          <value>-0.0018155598076542363</value>
          <splits>
            <_><var>5</var>
              <quality>0.02699957974255085</quality>
              <le>0.1290283203125</le></_></splits></_>
        <_>
          <depth>1</depth>
          <value>0.28369632136793183</value></_>
        <_>
          <depth>1</depth>
          <value>-0.10433824653765165</value></_></nodes></_>
    <_>
      <nodes>
        <_>
          <depth>0</depth>
          <value>0.003997299689612599</value>
          <splits>
            <_><var>4</var>
              <quality>0.026819771155714989</quality>
              <le>0.1617431640625</le></_></splits></_>
        <_>
          <depth>1</depth>
          <value>-0.24585506318551581</value></_>
        <_>
          <depth>1</depth>
          <value>0.11969299267142107</value></_></nodes></_>
    <_>
      <nodes>
        <_>
          <depth>0</depth>
          <value>-0.0029934414539871273</value>
          <splits>
            <_><var>8</var>
              <quality>0.025715284049510956</quality>
              <le>0.11993408203125</le></_></splits></_>
        <_>
          <depth>1</depth>
          <value>-0.080772076315771407</value></_>
        <_>
          <depth>1</depth>
          <value>0.36051575940826686</value></_></nodes></_>
    <_>
      <nodes>
        <_>
          <depth>0</depth>
          <value>0.0025467004414084808</value>
          <splits>
            <_><var>2</var>
              <quality>0.022229105234146118</quality>
              <le>0.02978515625</le></_></splits></_>
        <_>
          <depth>1</depth>
          <value>-0.63452721825063352</value></_>
        <_>
          <depth>1</depth>
          <value>0.044027205794982004</value></_></nodes></_>
    <_>
      <nodes>
        <_>
          <depth>0</depth>
          <value>-0.0013240439772001721</value>
          <splits>
            <_><var>0</var>
              <quality>0.029859092086553574</quality>
              <le>0.0347900390625</le></_></splits></_>
        <_>
          <depth>1</depth>
          <value>0.40089714278817212</value></_>
        <_>
          <depth>1</depth>
          <value>-0.083775436485160129</value></_></nodes></_>
    <_>
      <nodes>
        <_>
          <depth>0</depth>
          <value>-0.0034345175878179356</value>
          <splits>
            <_><var>4</var>
              <quality>0.046976916491985321</quality>
              <le>0.29010009765625</le></_></splits></_>
        <_>
          <depth>1</depth>
          <value>0.064674140453327783</value></_>
        <_>
          <depth>1</depth>
          <value>-0.92928895260870181</value></_></nodes></_>
    <_>
      <nodes>
        <_>
          <depth>0</depth>
          <value>0.0027346789812049623</value>
          <splits>
            <_><var>4</var>
              <quality>0.035698156803846359</quality>
              <le>0.224609375</le></_></splits></_>
        <_>
          <depth>1</depth>
          <value>-0.070384737887975224</value></_>
        <_>
          <depth>1</depth>
          <value>0.5725319821170739</value></_></nodes></_>
    <_>
      <nodes>
        <_>
          <depth>0</depth>
          <value>-0.01063347154950809</value>
          <splits>
            <_><var>5</var>
              <quality>0.041149560362100601</quality>
              <le>0.154052734375</le></_></splits></_>
        <_>
          <depth>1</depth>
          <value>0.11085425186031199</value></_>
        <_>
          <depth>1</depth>
          <value>-0.38558559705430062</value></_></nodes></_>
    <_>
      <nodes>
        <_>
          <depth>0</depth>
          <value>0.013587396746697044</value>
          <splits>
            <_><var>0</var>
              <quality>0.032043296843767166</quality>
              <le>0.05035400390625</le></_></splits></_>
        <_>
          <depth>1</depth>
          <value>0.28636848687064831</value></_>
        <_>
          <depth>1</depth>
          <value>-0.1132815907815214</value></_></nodes></_>
    <_>
      <nodes>
        <_>
          <depth>0</depth>
          <value>-0.0075717426828038033</value>
          <splits>
            <_><var>7</var>
              <quality>0.027949141338467598</quality>
              <le>0.07757568359375</le></_></splits></_>
        <_>
          <depth>1</depth>
          <value>-0.29191145178726258</value></_>
        <_>
          <depth>1</depth>
          <value>0.098883763982093184</value></_></nodes></_>
    <_>
      <nodes>
        <_>
          <depth>0</depth>
          <value>0.0068293933549481902</value>
          <splits>
            <_><var>9</var>
              <quality>0.019939517602324486</quality>
              <le>0.0723876953125</le></_></splits></_>
        <_>
          <depth>1</depth>
          <value>5.7564577324623896</value></_>
        <_>
          <depth>1</depth>
          <value>-0.014259313820759048</value></_></nodes></_>
    <_>
      <nodes>
        <_>
          <depth>0</depth>
          <value>-0.00022745857019962446</value>
          <splits>
            <_><var>4</var>
              <quality>0.024088842794299126</quality>
              <le>0.3131103515625</le></_></splits></_>
        <_>
          <depth>1</depth>
          <value>0.029481158641909432</value></_>
        <_>
          <depth>1</depth>
          <value>-1.2705785653014605</value></_></nodes></_>
    <_>
      <nodes>
        <_>
          <depth>0</depth>
          <value>-0.00074944885820506322</value>
          <splits>
            <_><var>8</var>
              <quality>0.02950613759458065</quality>
              <le>0.068115234375</le></_></splits></_>
        <_>
          <depth>1</depth>
          <value>0.86834194027399914</value></_>
        <_>
          <depth>1</depth>
          <value>-0.04506984427177077</value></_></nodes></_>
    <_>
      <nodes>
        <_>
          <depth>0</depth>
          <value>-0.0049996936062011279</value>
          <splits>
            <_><var>2</var>
              <quality>0.023755308240652084</quality>
              <le>0.05303955078125</le></_></splits></_>
        <_>
          <depth>1</depth>
          <value>-0.15122841944033366</value></_>
        <_>
          <depth>1</depth>
          <value>0.16876546240846166</value></_></nodes></_>
    <_>
      <nodes>
        <_>
          <depth>0</depth>
          <value>0.0035033757041329789</value>
          <splits>
            <_><var>1</var>
              <quality>0.019434353336691856</quality>
              <le>0.07916259765625</le></_></splits></_>
        <_>
          <depth>1</depth>
          <value>0.18087618201141228</value></_>
        <_>
          <depth>1</depth>
          <value>-0.11351989739119614</value></_></nodes></_>
    <_>
      <nodes>
        <_>
          <depth>0</depth>
          <value>-0.0032848662079524131</value>
          <splits>
            <_><var>3</var>
              <quality>0.030983520671725273</quality>
              <le>0.09771728515625</le></_></splits></_>
        <_>
          <depth>1</depth>
          <value>0.37568447816506584</value></_>
        <_>
          <depth>1</depth>
          <value>-0.093567117429002158</value></_></nodes></_>
    <_>
      <nodes>
        <_>
          <depth>0</depth>
          <value>0.0027560055812054086</value>
          <splits>
            <_><var>4</var>
              <quality>0.027428476139903069</quality>
              <le>0.14349365234375</le></_></splits></_>
        <_>
          <depth>1</depth>
          <value>-0.37215805573867883</value></_>
        <_>
          <depth>1</depth>
          <value>0.083406742255989333</value></_></nodes></_>
    <_>
      <nodes>
        <_>
          <depth>0</depth>
          <value>-0.0013689022117886619</value>
          <splits>
            <_><var>8</var>
              <quality>0.023239649832248688</quality>
              <le>0.068359375</le></_></splits></_>
        <_>
          <depth>1</depth>
          <value>-0.6602124847411408</value></_>
        <_>
          <depth>1</depth>
          <value>0.04104082726519849</value></_></nodes></_>
    <_>
      <nodes>
        <_>
          <depth>0</depth>
          <value>0.0099787267801788211</value>
          <splits>
            <_><var>4</var>
              <quality>0.023959057405591011</quality>
              <le>0.19805908203125</le></_></splits></_>
        <_>
          <depth>1</depth>
          <value>-0.081081907935521252</value></_>
        <_>
          <depth>1</depth>
          <value>0.29459031217924658</value></_></nodes></_>
    <_>
      <nodes>
        <_>
          <depth>0</depth>
          <value>-0.008218384510603003</value>
          <splits>
            <_><var>9</var>
              <quality>0.030726447701454163</quality>
              <le>0.1072998046875</le></_></splits></_>
        <_>
          <depth>1</depth>
          <value>-0.36970523163285718</value></_>
        <_>
          <depth>1</depth>
          <value>0.085403044424612745</value></_></nodes></_>
    <_>
      <nodes>
        <_>
          <depth>0</depth>
          <value>0.010155876552945661</value>
          <splits>
            <_><var>0</var>
              <quality>0.038133010268211365</quality>
              <le>0.04498291015625</le></_></splits></_>
        <_>
          <depth>1</depth>
          <value>0.38102843435391281</value></_>
        <_>
          <depth>1</depth>
          <value>-0.10349980769993368</value></_></nodes></_>
    <_>
      <nodes>
        <_>
          <depth>0</depth>
          <value>-0.0083549001726341224</value>
          <splits>
            <_><var>5</var>
              <quality>0.033993694931268692</quality>
              <le>0.14141845703125</le></_></splits></_>
        <_>
          <depth>1</depth>
          <value>0.15510041861569593</value></_>
        <_>
          <depth>1</depth>
          <value>-0.23261928010533547</value></_></nodes></_>
    <_>
      <nodes>
        <_>
          <depth>0</depth>
          <value>0.0076050215206289774</value>
          <splits>
            <_><var>3</var>
              <quality>0.020672677084803581</quality>
              <le>0.1029052734375</le></_></splits></_>
        <_>
          <depth>1</depth>
          <value>-0.18392720480929634</value></_>
        <_>
          <depth>1</depth>
          <value>0.12275590923932857</value></_></nodes></_>
    <_>
      <nodes>
        <_>
          <depth>0</depth>
          <value>-0.0018619542491207612</value>
          <splits>
            <_><var>3</var>
              <quality>0.030060883611440659</quality>
              <le>0.10968017578125</le></_></splits></_>
        <_>
          <depth>1</depth>
          <value>0.16490246442298553</value></_>
        <_>
          <depth>1</depth>
          <value>-0.19569542153136921</value></_></nodes></_>
    <_>
      <nodes>
        <_>
          <depth>0</depth>
          <value>0.0052677600229200277</value>
          <splits>
            <_><var>0</var>
              <quality>0.025386592373251915</quality>
              <le>0.05682373046875</le></_></splits></_>
        <_>
          <depth>1</depth>
          <value>0.17997760870479618</value></_>
        <_>
          <depth>1</depth>
          <value>-0.15033590247243184</value></_></nodes></_>
    <_>
      <nodes>
        <_>
          <depth>0</depth>
          <value>-0.0044872829043707506</value>
          <splits>
            <_><var>5</var>
              <quality>0.022856060415506363</quality>
              <le>0.12701416015625</le></_></splits></_>
        <_>
          <depth>1</depth>
          <value>0.27656856332709789</value></_>
        <_>
          <depth>1</depth>
          <value>-0.092416128555233637</value></_></nodes></_>
    <_>
      <nodes>
        <_>
          <depth>0</depth>
          <value>0.0016419378864730915</value>
          <splits>
            <_><var>4</var>
              <quality>0.030235584825277328</quality>
              <le>0.16680908203125</le></_></splits></_>
        <_>
          <depth>1</depth>
          <value>-0.19381091287008373</value></_>
        <_>
          <depth>1</depth>
          <value>0.16804793383348629</value></_></nodes></_>
    <_>
      <nodes>
        <_>
          <depth>0</depth>
          <value>-0.0042190772752158674</value>
          <splits>
            <_><var>5</var>
              <quality>0.02043575793504715</quality>
              <le>0.20501708984375</le></_></splits></_>
        <_>
          <depth>1</depth>
          <value>0.021727261904327163</value></_>
        <_>
          <depth>1</depth>
          <value>-1.1939858810214228</value></_></nodes></_>
    <_>
      <nodes>
        <_>
          <depth>0</depth>
          <value>-3.4384249306219916e-05</value>
          <splits>
            <_><var>2</var>
              <quality>0.034853674471378326</quality>
              <le>0.04290771484375</le></_></splits></_>
        <_>
          <depth>1</depth>
          <value>0.43090529198764171</value></_>
        <_>
          <depth>1</depth>
          <value>-0.090625681761858243</value></_></nodes></_>
    <_>
      <nodes>
        <_>
          <depth>0</depth>
          <value>0.00075497962420304767</value>
          <splits>
            <_><var>9</var>
              <quality>0.026601603254675865</quality>
              <le>0.104248046875</le></_></splits></_>
        <_>
          <depth>1</depth>
          <value>-0.34372056677311597</value></_>
        <_>
          <depth>1</depth>
          <value>0.085418478232126879</value></_></nodes></_>
    <_>
      <nodes>
        <_>
          <depth>0</depth>
          <value>0.0094681463617870571</value>
          <splits>
            <_><var>3</var>
              <quality>0.025348363444209099</quality>
              <le>0.10308837890625</le></_></splits></_>
        <_>
          <depth>1</depth>
          <value>-0.19133390367178268</value></_>
        <_>
          <depth>1</depth>
          <value>0.14444152147495312</value></_></nodes></_>
    <_>
      <nodes>
        <_>
          <depth>0</depth>
          <value>-0.0027973036804813498</value>
          <splits>
            <_><var>0</var>
              <quality>0.025231791660189629</quality>
              <le>0.0831298828125</le></_></splits></_>
        <_>
          <depth>1</depth>
          <value>-0.047978573945827392</value></_>
        <_>
          <depth>1</depth>
          <value>0.67051347610225509</value></_></nodes></_>
    <_>
      <nodes>
        <_>
          <depth>0</depth>
          <value>-0.0025605985204881381</value>
          <splits>
            <_><var>0</var>
              <quality>0.019112752750515938</quality>
              <le>0.02069091796875</le></_></splits></_>
        <_>
          <depth>1</depth>
          <value>0.8316784960084499</value></_>
        <_>
          <depth>1</depth>
          <value>-0.031977997010704563</value></_></nodes></_>
    <_>
      <nodes>
        <_>
          <depth>0</depth>
          <value>0.0011914457114763862</value>
          <splits>
            <_><var>5</var>
              <quality>0.01825624518096447</quality>
              <le>0.10321044921875</le></_></splits></_>
        <_>
          <depth>1</depth>
          <value>-5.7564577324601141</value></_>
        <_>
          <depth>1</depth>
          <value>0.020387358976784196</value></_></nodes></_>
    <_>
      <nodes>
        <_>
          <depth>0</depth>
          <value>-0.0024723563232484152</value>
          <splits>
            <_><var>5</var>
              <quality>0.018117424100637436</quality>
              <le>0.10638427734375</le></_></splits></_>
        <_>
          <depth>1</depth>
          <value>1.0770518923683852</value></_>
        <_>
          <depth>1</depth>
          <value>-0.026473849024099473</value></_></nodes></_>
    <_>
      <nodes>
        <_>
          <depth>0</depth>
          <value>0.0022466313698058546</value>
          <splits>
            <_><var>4</var>
              <quality>0.028834681957960129</quality>
              <le>0.13006591796875</le></_></splits></_>
        <_>
          <depth>1</depth>
          <value>-0.75249623644419872</value></_>
        <_>
          <depth>1</depth>
          <value>0.049784628878482791</value></_></nodes></_>
    <_>
      <nodes>
        <_>
          <depth>0</depth>
          <value>-0.0019443587987011453</value>
          <splits>
            <_><var>9</var>
              <quality>0.02608635276556015</quality>
              <le>0.14324951171875</le></_></splits></_>
        <_>
          <depth>1</depth>
          <value>-0.092921208112788145</value></_>
        <_>
          <depth>1</depth>
          <value>0.31030853745405074</value></_></nodes></_>
    <_>
      <nodes>
        <_>
          <depth>0</depth>
          <value>0.0047313148369275563</value>
          <splits>
            <_><var>4</var>
              <quality>0.019973333925008774</quality>
              <le>0.1617431640625</le></_></splits></_>
        <_>
          <depth>1</depth>
          <value>-0.21253104123886365</value></_>
        <_>
          <depth>1</depth>
          <value>0.10318631172787766</value></_></nodes></_>
    <_>
      <nodes>
        <_>
          <depth>0</depth>
          <value>-0.0037303308863672123</value>
          <splits>
            <_><var>8</var>
              <quality>0.022537399083375931</quality>
              <le>0.1077880859375</le></_></splits></_>
        <_>
          <depth>1</depth>
          <value>-0.10029845331584913</value></_>
        <_>
          <depth>1</depth>
          <value>0.24758319323011305</value></_></nodes></_>
    <_>
      <nodes>
        <_>
          <depth>0</depth>
          <value>0.0032370092715567852</value>
          <splits>
            <_><var>2</var>
              <quality>0.021046293899416924</quality>
              <le>0.02978515625</le></_></splits></_>
        <_>
          <depth>1</depth>
          <value>-0.66098787895612343</value></_>
        <_>
          <depth>1</depth>
          <value>0.041288383840510659</value></_></nodes></_>
    <_>
      <nodes>
        <_>
          <depth>0</depth>
          <value>-0.00036288109270648757</value>
          <splits>
            <_><var>3</var>
              <quality>0.018914228305220604</quality>
              <le>0.13250732421875</le></_></splits></_>
        <_>
          <depth>1</depth>
          <value>-0.02307324214294159</value></_>
        <_>
          <depth>1</depth>
          <value>1.3604635147160971</value></_></nodes></_>
    <_>
      <nodes>
        <_>
          <depth>0</depth>
          <value>-0.0012241483352603451</value>
          <splits>
            <_><var>3</var>
              <quality>0.026778809726238251</quality>
              <le>0.13037109375</le></_></splits></_>
        <_>
          <depth>1</depth>
          <value>0.038308276010087898</value></_>
        <_>
          <depth>1</depth>
          <value>-0.8957107119944584</value></_></nodes></_>
    <_>
      <nodes>
        <_>
          <depth>0</depth>
          <value>0.0077014071885725633</value>
          <splits>
            <_><var>0</var>
              <quality>0.027062209323048592</quality>
              <le>0.044921875</le></_></splits></_>
        <_>
          <depth>1</depth>
          <value>0.34086813788440273</value></_>
        <_>
          <depth>1</depth>
          <value>-0.081159317265044606</value></_></nodes></_>
    <_>
      <nodes>
        <_>
          <depth>0</depth>
          <value>-0.0091507757138700376</value>
          <splits>
            <_><var>6</var>
              <quality>0.022830676287412643</quality>
              <le>0.06622314453125</le></_></splits></_>
        <_>
          <depth>1</depth>
          <value>-0.20767630200066561</value></_>
        <_>
          <depth>1</depth>
          <value>0.11377182802729041</value></_></nodes></_>
    <_>
      <nodes>
        <_>
          <depth>0</depth>
          <value>-0.0015512491847198824</value>
          <splits>
            <_><var>6</var>
              <quality>0.02109750360250473</quality>
              <le>0.07891845703125</le></_></splits></_>
        <_>
          <depth>1</depth>
          <value>0.047225670967666805</value></_>
        <_>
          <depth>1</depth>
          <value>-0.49370910736460205</value></_></nodes></_>
    <_>
      <nodes>
        <_>
          <depth>0</depth>
          <value>0.0046493106904727357</value>
          <splits>
            <_><var>4</var>
              <quality>0.018666839227080345</quality>
              <le>0.32415771484375</le></_></splits></_>
        <_>
          <depth>1</depth>
          <value>0.024190831881179722</value></_>
        <_>
          <depth>1</depth>
          <value>-5.7564577324601141</value></_></nodes></_>
    <_>
      <nodes>
        <_>
          <depth>0</depth>
          <value>0.038357678496002606</value>
          <splits>
            <_><var>7</var>
              <quality>0.056993920356035233</quality>
              <le>0.065185546875</le></_></splits></_>
        <_>
          <depth>1</depth>
          <value>2.1796524115946361</value></_>
        <_>
          <depth>1</depth>
          <value>-0.024135236616601052</value></_></nodes></_>
    <_>
      <nodes>
        <_>
          <depth>0</depth>
          <value>-0.0044346823271825169</value>
          <splits>
            <_><var>8</var>
              <quality>0.019379401579499245</quality>
              <le>0.09417724609375</le></_></splits></_>
        <_>
          <depth>1</depth>
          <value>0.15927765137931638</value></_>
        <_>
          <depth>1</depth>
          <value>-0.13069713705701111</value></_></nodes></_>
    <_>
      <nodes>
        <_>
          <depth>0</depth>
          <value>-0.0029761129615411557</value>
          <splits>
            <_><var>1</var>
              <quality>0.025466272607445717</quality>
              <le>0.09954833984375</le></_></splits></_>
        <_>
          <depth>1</depth>
          <value>0.032084336782185488</value></_>
        <_>
          <depth>1</depth>
          <value>-1.0140827021738881</value></_></nodes></_>
    <_>
      <nodes>
        <_>
          <depth>0</depth>
          <value>-0.0017193603752291161</value>
          <splits>
            <_><var>7</var>
              <quality>0.031818907707929611</quality>
              <le>0.09124755859375</le></_></splits></_>
        <_>
          <depth>1</depth>
          <value>-0.10151414884400213</value></_>
        <_>
          <depth>1</depth>
          <value>0.34852608035823396</value></_></nodes></_>
    <_>
      <nodes>
        <_>
          <depth>0</depth>
          <value>0.0052234383595864999</value>
          <splits>
            <_><var>7</var>
              <quality>0.028390973806381226</quality>
              <le>0.0928955078125</le></_></splits></_>
        <_>
          <depth>1</depth>
          <value>0.079284491047888622</value></_>
        <_>
          <depth>1</depth>
          <value>-0.42223507280510725</value></_></nodes></_>
    <_>
      <nodes>
        <_>
          <depth>0</depth>
          <value>-0.0031118828635981867</value>
          <splits>
            <_><var>7</var>
              <quality>0.024000229313969612</quality>
              <le>0.07757568359375</le></_></splits></_>
        <_>
          <depth>1</depth>
          <value>-0.30522257914524031</value></_>
        <_>
          <depth>1</depth>
          <value>0.083277791287673167</value></_></nodes></_>
    <_>
      <nodes>
        <_>
          <depth>0</depth>
          <value>0.0093758741028747185</value>
          <splits>
            <_><var>4</var>
              <quality>0.035572435706853867</quality>
              <le>0.17962646484375</le></_></splits></_>
        <_>
          <depth>1</depth>
          <value>-0.15693585410908656</value></_>
        <_>
          <depth>1</depth>
          <value>0.24022500934821878</value></_></nodes></_></trees></opencv_ml_boost>
</opencv_storage>
